{
  "fc1.weight": [
    [
      -0.34987375140190125,
      0.2719423472881317,
      0.07088568061590195,
      -0.24526527523994446,
      -0.017498869448900223
    ],
    [
      -0.018248477950692177,
      -0.9352126717567444,
      0.09743891656398773,
      0.32581400871276855,
      0.6147551536560059
    ],
    [
      -1.8782390356063843,
      0.5591755509376526,
      -0.6604624390602112,
      -1.0209639072418213,
      1.2595704793930054
    ],
    [
      0.4978235960006714,
      0.5599538683891296,
      0.39451879262924194,
      -0.38963302969932556,
      0.1454458087682724
    ],
    [
      1.087506651878357,
      0.10173904150724411,
      -0.6435744762420654,
      0.9734849333763123,
      0.1917620599269867
    ],
    [
      1.5824410915374756,
      -0.20165330171585083,
      -0.26945725083351135,
      1.242462396621704,
      -1.0527690649032593
    ],
    [
      0.12493414431810379,
      1.3312162160873413,
      0.3201385736465454,
      0.889061689376831,
      0.03702564910054207
    ],
    [
      -0.3034289479255676,
      0.6953186988830566,
      0.4565013349056244,
      0.9938388466835022,
      -0.09371642768383026
    ]
  ],
  "fc1.bias": [
    -0.11248232424259186,
    0.47713804244995117,
    -0.2901972234249115,
    0.22731690108776093,
    -0.5229952931404114,
    0.41018426418304443,
    0.2759406268596649,
    1.0384588241577148
  ],
  "fc2.weight": [
    [
      0.1491074562072754,
      0.12492634356021881,
      -1.8128893375396729,
      -0.08693059533834457,
      -1.4027507305145264,
      -2.0658583641052246,
      0.6919986605644226,
      0.37110382318496704
    ],
    [
      -0.25219854712486267,
      -1.0335081815719604,
      0.3549596071243286,
      1.0573370456695557,
      0.19032877683639526,
      -0.4222652316093445,
      1.1465750932693481,
      0.071791872382164
    ]
  ],
  "fc2.bias": [
    0.0344562865793705,
    -0.1767760068178177
  ]
}