{
  "fc1.weight": [
    [
      -0.1143534928560257,
      3.3617844581604004,
      -0.5057530999183655,
      0.23700480163097382,
      0.19254149496555328
    ],
    [
      -2.0975728034973145,
      0.041658107191324234,
      0.2156289517879486,
      -1.0356365442276,
      1.0374256372451782
    ],
    [
      0.31747081875801086,
      0.04555783420801163,
      -0.19065698981285095,
      -0.2626759111881256,
      -0.04911284148693085
    ],
    [
      -2.4176065921783447,
      -0.002568119438365102,
      -0.33674243092536926,
      1.1875182390213013,
      -1.2942099571228027
    ],
    [
      0.34722620248794556,
      0.31522679328918457,
      0.5189296007156372,
      -1.1661510467529297,
      1.3756214380264282
    ],
    [
      -0.03159523382782936,
      3.7196669578552246,
      -0.99165278673172,
      2.1825313568115234,
      -1.7759864330291748
    ],
    [
      0.25704261660575867,
      0.8096286058425903,
      0.09076142311096191,
      1.181404709815979,
      -1.0335081815719604
    ],
    [
      0.4107358157634735,
      -0.09951220452785492,
      -0.24914586544036865,
      -0.1125170886516571,
      -0.2725693881511688
    ]
  ],
  "fc1.bias": [
    0.3548280596733093,
    -0.5568042397499084,
    -0.23867745697498322,
    0.7611746191978455,
    0.04502784088253975,
    0.799903392791748,
    0.8772130608558655,
    -0.05772848799824715
  ],
  "fc2.weight": [
    [
      0.05868779122829437,
      -2.7360126972198486,
      -0.28893953561782837,
      2.314295768737793,
      1.5858813524246216,
      0.016174117103219032,
      -0.8394567966461182,
      0.009660184383392334
    ],
    [
      1.5448758602142334,
      0.11890571564435959,
      0.17305158078670502,
      0.2025347203016281,
      -0.21543416380882263,
      -2.8868913650512695,
      2.228837013244629,
      -0.27712345123291016
    ]
  ],
  "fc2.bias": [
    -1.1203633546829224,
    -0.8101323246955872
  ]
}